digraph Tree {
node [shape=box] ;
0 [label="女 <= 0.5\ngini = 0.442\nsamples = 984\nvalue = [659, 325]"] ;
1 [label="年龄 <= 4.0\ngini = 0.278\nsamples = 646\nvalue = [538, 108]"] ;
0 -> 1 [labeldistance=2.5, labelangle=45, headlabel="True"] ;
2 [label="年龄 <= 0.583\ngini = 0.142\nsamples = 13\nvalue = [1, 12]"] ;
1 -> 2 ;
3 [label="gini = 0.0\nsamples = 1\nvalue = [1, 0]"] ;
2 -> 3 ;
4 [label="gini = 0.0\nsamples = 12\nvalue = [0, 12]"] ;
2 -> 4 ;
5 [label="pclass=1st <= 0.5\ngini = 0.257\nsamples = 633\nvalue = [537, 96]"] ;
1 -> 5 ;
6 [label="年龄 <= 10.0\ngini = 0.188\nsamples = 496\nvalue = [444, 52]"] ;
5 -> 6 ;
7 [label="年龄 <= 7.5\ngini = 0.444\nsamples = 6\nvalue = [4, 2]"] ;
6 -> 7 ;
8 [label="gini = 0.0\nsamples = 3\nvalue = [3, 0]"] ;
7 -> 8 ;
9 [label="gini = 0.444\nsamples = 3\nvalue = [1, 2]"] ;
7 -> 9 ;
10 [label="年龄 <= 29.5\ngini = 0.183\nsamples = 490\nvalue = [440, 50]"] ;
6 -> 10 ;
11 [label="年龄 <= 18.5\ngini = 0.104\nsamples = 109\nvalue = [103, 6]"] ;
10 -> 11 ;
12 [label="gini = 0.0\nsamples = 18\nvalue = [18, 0]"] ;
11 -> 12 ;
13 [label="年龄 <= 19.5\ngini = 0.123\nsamples = 91\nvalue = [85, 6]"] ;
11 -> 13 ;
14 [label="pclass=2nd <= 0.5\ngini = 0.32\nsamples = 10\nvalue = [8, 2]"] ;
13 -> 14 ;
15 [label="gini = 0.408\nsamples = 7\nvalue = [5, 2]"] ;
14 -> 15 ;
16 [label="gini = 0.0\nsamples = 3\nvalue = [3, 0]"] ;
14 -> 16 ;
17 [label="pclass=3rd <= 0.5\ngini = 0.094\nsamples = 81\nvalue = [77, 4]"] ;
13 -> 17 ;
18 [label="年龄 <= 21.5\ngini = 0.149\nsamples = 37\nvalue = [34, 3]"] ;
17 -> 18 ;
19 [label="gini = 0.0\nsamples = 7\nvalue = [7, 0]"] ;
18 -> 19 ;
20 [label="年龄 <= 26.5\ngini = 0.18\nsamples = 30\nvalue = [27, 3]"] ;
18 -> 20 ;
21 [label="年龄 <= 25.5\ngini = 0.227\nsamples = 23\nvalue = [20, 3]"] ;
20 -> 21 ;
22 [label="年龄 <= 24.5\ngini = 0.18\nsamples = 20\nvalue = [18, 2]"] ;
21 -> 22 ;
23 [label="年龄 <= 23.5\ngini = 0.245\nsamples = 14\nvalue = [12, 2]"] ;
22 -> 23 ;
24 [label="年龄 <= 22.5\ngini = 0.165\nsamples = 11\nvalue = [10, 1]"] ;
23 -> 24 ;
25 [label="gini = 0.32\nsamples = 5\nvalue = [4, 1]"] ;
24 -> 25 ;
26 [label="gini = 0.0\nsamples = 6\nvalue = [6, 0]"] ;
24 -> 26 ;
27 [label="gini = 0.444\nsamples = 3\nvalue = [2, 1]"] ;
23 -> 27 ;
28 [label="gini = 0.0\nsamples = 6\nvalue = [6, 0]"] ;
22 -> 28 ;
29 [label="gini = 0.444\nsamples = 3\nvalue = [2, 1]"] ;
21 -> 29 ;
30 [label="gini = 0.0\nsamples = 7\nvalue = [7, 0]"] ;
20 -> 30 ;
31 [label="年龄 <= 21.5\ngini = 0.044\nsamples = 44\nvalue = [43, 1]"] ;
17 -> 31 ;
32 [label="年龄 <= 20.5\ngini = 0.165\nsamples = 11\nvalue = [10, 1]"] ;
31 -> 32 ;
33 [label="gini = 0.0\nsamples = 6\nvalue = [6, 0]"] ;
32 -> 33 ;
34 [label="gini = 0.32\nsamples = 5\nvalue = [4, 1]"] ;
32 -> 34 ;
35 [label="gini = 0.0\nsamples = 33\nvalue = [33, 0]"] ;
31 -> 35 ;
36 [label="年龄 <= 36.5\ngini = 0.204\nsamples = 381\nvalue = [337, 44]"] ;
10 -> 36 ;
37 [label="年龄 <= 35.5\ngini = 0.218\nsamples = 346\nvalue = [303, 43]"] ;
36 -> 37 ;
38 [label="年龄 <= 34.5\ngini = 0.215\nsamples = 343\nvalue = [301, 42]"] ;
37 -> 38 ;
39 [label="年龄 <= 31.597\ngini = 0.219\nsamples = 335\nvalue = [293, 42]"] ;
38 -> 39 ;
40 [label="年龄 <= 30.5\ngini = 0.212\nsamples = 316\nvalue = [278, 38]"] ;
39 -> 40 ;
41 [label="pclass=3rd <= 0.5\ngini = 0.32\nsamples = 10\nvalue = [8, 2]"] ;
40 -> 41 ;
42 [label="gini = 0.245\nsamples = 7\nvalue = [6, 1]"] ;
41 -> 42 ;
43 [label="gini = 0.444\nsamples = 3\nvalue = [2, 1]"] ;
41 -> 43 ;
44 [label="年龄 <= 31.097\ngini = 0.208\nsamples = 306\nvalue = [270, 36]"] ;
40 -> 44 ;
45 [label="gini = 0.0\nsamples = 2\nvalue = [2, 0]"] ;
44 -> 45 ;
46 [label="pclass=3rd <= 0.5\ngini = 0.209\nsamples = 304\nvalue = [268, 36]"] ;
44 -> 46 ;
47 [label="gini = 0.213\nsamples = 33\nvalue = [29, 4]"] ;
46 -> 47 ;
48 [label="gini = 0.208\nsamples = 271\nvalue = [239, 32]"] ;
46 -> 48 ;
49 [label="年龄 <= 32.5\ngini = 0.332\nsamples = 19\nvalue = [15, 4]"] ;
39 -> 49 ;
50 [label="pclass=2nd <= 0.5\ngini = 0.49\nsamples = 7\nvalue = [4, 3]"] ;
49 -> 50 ;
51 [label="gini = 0.375\nsamples = 4\nvalue = [3, 1]"] ;
50 -> 51 ;
52 [label="gini = 0.444\nsamples = 3\nvalue = [1, 2]"] ;
50 -> 52 ;
53 [label="pclass=3rd <= 0.5\ngini = 0.153\nsamples = 12\nvalue = [11, 1]"] ;
49 -> 53 ;
54 [label="年龄 <= 33.5\ngini = 0.219\nsamples = 8\nvalue = [7, 1]"] ;
53 -> 54 ;
55 [label="gini = 0.0\nsamples = 1\nvalue = [1, 0]"] ;
54 -> 55 ;
56 [label="gini = 0.245\nsamples = 7\nvalue = [6, 1]"] ;
54 -> 56 ;
57 [label="gini = 0.0\nsamples = 4\nvalue = [4, 0]"] ;
53 -> 57 ;
58 [label="gini = 0.0\nsamples = 8\nvalue = [8, 0]"] ;
38 -> 58 ;
59 [label="pclass=2nd <= 0.5\ngini = 0.444\nsamples = 3\nvalue = [2, 1]"] ;
37 -> 59 ;
60 [label="gini = 0.0\nsamples = 1\nvalue = [0, 1]"] ;
59 -> 60 ;
61 [label="gini = 0.0\nsamples = 2\nvalue = [2, 0]"] ;
59 -> 61 ;
62 [label="年龄 <= 44.5\ngini = 0.056\nsamples = 35\nvalue = [34, 1]"] ;
36 -> 62 ;
63 [label="gini = 0.0\nsamples = 19\nvalue = [19, 0]"] ;
62 -> 63 ;
64 [label="pclass=3rd <= 0.5\ngini = 0.117\nsamples = 16\nvalue = [15, 1]"] ;
62 -> 64 ;
65 [label="gini = 0.0\nsamples = 12\nvalue = [12, 0]"] ;
64 -> 65 ;
66 [label="年龄 <= 46.0\ngini = 0.375\nsamples = 4\nvalue = [3, 1]"] ;
64 -> 66 ;
67 [label="gini = 0.5\nsamples = 2\nvalue = [1, 1]"] ;
66 -> 67 ;
68 [label="gini = 0.0\nsamples = 2\nvalue = [2, 0]"] ;
66 -> 68 ;
69 [label="年龄 <= 56.5\ngini = 0.436\nsamples = 137\nvalue = [93, 44]"] ;
5 -> 69 ;
70 [label="年龄 <= 47.5\ngini = 0.455\nsamples = 123\nvalue = [80, 43]"] ;
69 -> 70 ;
71 [label="年龄 <= 38.5\ngini = 0.435\nsamples = 103\nvalue = [70, 33]"] ;
70 -> 71 ;
72 [label="年龄 <= 12.5\ngini = 0.468\nsamples = 83\nvalue = [52, 31]"] ;
71 -> 72 ;
73 [label="gini = 0.0\nsamples = 1\nvalue = [0, 1]"] ;
72 -> 73 ;
74 [label="年龄 <= 26.5\ngini = 0.464\nsamples = 82\nvalue = [52, 30]"] ;
72 -> 74 ;
75 [label="年龄 <= 24.5\ngini = 0.5\nsamples = 10\nvalue = [5, 5]"] ;
74 -> 75 ;
76 [label="年龄 <= 23.5\ngini = 0.408\nsamples = 7\nvalue = [5, 2]"] ;
75 -> 76 ;
77 [label="年龄 <= 22.5\ngini = 0.48\nsamples = 5\nvalue = [3, 2]"] ;
76 -> 77 ;
78 [label="年龄 <= 20.0\ngini = 0.375\nsamples = 4\nvalue = [3, 1]"] ;
77 -> 78 ;
79 [label="gini = 0.0\nsamples = 1\nvalue = [1, 0]"] ;
78 -> 79 ;
80 [label="年龄 <= 21.5\ngini = 0.444\nsamples = 3\nvalue = [2, 1]"] ;
78 -> 80 ;
81 [label="gini = 0.5\nsamples = 2\nvalue = [1, 1]"] ;
80 -> 81 ;
82 [label="gini = 0.0\nsamples = 1\nvalue = [1, 0]"] ;
80 -> 82 ;
83 [label="gini = 0.0\nsamples = 1\nvalue = [0, 1]"] ;
77 -> 83 ;
84 [label="gini = 0.0\nsamples = 2\nvalue = [2, 0]"] ;
76 -> 84 ;
85 [label="gini = 0.0\nsamples = 3\nvalue = [0, 3]"] ;
75 -> 85 ;
86 [label="年龄 <= 30.5\ngini = 0.453\nsamples = 72\nvalue = [47, 25]"] ;
74 -> 86 ;
87 [label="年龄 <= 28.5\ngini = 0.298\nsamples = 11\nvalue = [9, 2]"] ;
86 -> 87 ;
88 [label="年龄 <= 27.5\ngini = 0.444\nsamples = 6\nvalue = [4, 2]"] ;
87 -> 88 ;
89 [label="gini = 0.444\nsamples = 3\nvalue = [2, 1]"] ;
88 -> 89 ;
90 [label="gini = 0.444\nsamples = 3\nvalue = [2, 1]"] ;
88 -> 90 ;
91 [label="gini = 0.0\nsamples = 5\nvalue = [5, 0]"] ;
87 -> 91 ;
92 [label="年龄 <= 33.5\ngini = 0.47\nsamples = 61\nvalue = [38, 23]"] ;
86 -> 92 ;
93 [label="年龄 <= 32.5\ngini = 0.457\nsamples = 51\nvalue = [33, 18]"] ;
92 -> 93 ;
94 [label="年龄 <= 31.097\ngini = 0.461\nsamples = 50\nvalue = [32, 18]"] ;
93 -> 94 ;
95 [label="gini = 0.5\nsamples = 4\nvalue = [2, 2]"] ;
94 -> 95 ;
96 [label="年龄 <= 31.597\ngini = 0.454\nsamples = 46\nvalue = [30, 16]"] ;
94 -> 96 ;
97 [label="gini = 0.449\nsamples = 44\nvalue = [29, 15]"] ;
96 -> 97 ;
98 [label="gini = 0.5\nsamples = 2\nvalue = [1, 1]"] ;
96 -> 98 ;
99 [label="gini = 0.0\nsamples = 1\nvalue = [1, 0]"] ;
93 -> 99 ;
100 [label="年龄 <= 36.5\ngini = 0.5\nsamples = 10\nvalue = [5, 5]"] ;
92 -> 100 ;
101 [label="年龄 <= 35.0\ngini = 0.444\nsamples = 6\nvalue = [2, 4]"] ;
100 -> 101 ;
102 [label="gini = 0.0\nsamples = 1\nvalue = [0, 1]"] ;
101 -> 102 ;
103 [label="gini = 0.48\nsamples = 5\nvalue = [2, 3]"] ;
101 -> 103 ;
104 [label="年龄 <= 37.5\ngini = 0.375\nsamples = 4\nvalue = [3, 1]"] ;
100 -> 104 ;
105 [label="gini = 0.0\nsamples = 2\nvalue = [2, 0]"] ;
104 -> 105 ;
106 [label="gini = 0.5\nsamples = 2\nvalue = [1, 1]"] ;
104 -> 106 ;
107 [label="年龄 <= 46.5\ngini = 0.18\nsamples = 20\nvalue = [18, 2]"] ;
71 -> 107 ;
108 [label="年龄 <= 44.5\ngini = 0.117\nsamples = 16\nvalue = [15, 1]"] ;
107 -> 108 ;
109 [label="年龄 <= 43.0\ngini = 0.219\nsamples = 8\nvalue = [7, 1]"] ;
108 -> 109 ;
110 [label="gini = 0.0\nsamples = 6\nvalue = [6, 0]"] ;
109 -> 110 ;
111 [label="gini = 0.5\nsamples = 2\nvalue = [1, 1]"] ;
109 -> 111 ;
112 [label="gini = 0.0\nsamples = 8\nvalue = [8, 0]"] ;
108 -> 112 ;
113 [label="gini = 0.375\nsamples = 4\nvalue = [3, 1]"] ;
107 -> 113 ;
114 [label="年龄 <= 49.5\ngini = 0.5\nsamples = 20\nvalue = [10, 10]"] ;
70 -> 114 ;
115 [label="年龄 <= 48.5\ngini = 0.245\nsamples = 7\nvalue = [1, 6]"] ;
114 -> 115 ;
116 [label="gini = 0.444\nsamples = 3\nvalue = [1, 2]"] ;
115 -> 116 ;
117 [label="gini = 0.0\nsamples = 4\nvalue = [0, 4]"] ;
115 -> 117 ;
118 [label="年龄 <= 51.5\ngini = 0.426\nsamples = 13\nvalue = [9, 4]"] ;
114 -> 118 ;
119 [label="gini = 0.0\nsamples = 4\nvalue = [4, 0]"] ;
118 -> 119 ;
120 [label="年龄 <= 54.5\ngini = 0.494\nsamples = 9\nvalue = [5, 4]"] ;
118 -> 120 ;
121 [label="年龄 <= 53.0\ngini = 0.5\nsamples = 6\nvalue = [3, 3]"] ;
120 -> 121 ;
122 [label="gini = 0.5\nsamples = 2\nvalue = [1, 1]"] ;
121 -> 122 ;
123 [label="gini = 0.5\nsamples = 4\nvalue = [2, 2]"] ;
121 -> 123 ;
124 [label="年龄 <= 55.5\ngini = 0.444\nsamples = 3\nvalue = [2, 1]"] ;
120 -> 124 ;
125 [label="gini = 0.0\nsamples = 1\nvalue = [1, 0]"] ;
124 -> 125 ;
126 [label="gini = 0.5\nsamples = 2\nvalue = [1, 1]"] ;
124 -> 126 ;
127 [label="年龄 <= 60.5\ngini = 0.133\nsamples = 14\nvalue = [13, 1]"] ;
69 -> 127 ;
128 [label="年龄 <= 59.0\ngini = 0.278\nsamples = 6\nvalue = [5, 1]"] ;
127 -> 128 ;
129 [label="gini = 0.0\nsamples = 4\nvalue = [4, 0]"] ;
128 -> 129 ;
130 [label="gini = 0.5\nsamples = 2\nvalue = [1, 1]"] ;
128 -> 130 ;
131 [label="gini = 0.0\nsamples = 8\nvalue = [8, 0]"] ;
127 -> 131 ;
132 [label="pclass=3rd <= 0.5\ngini = 0.46\nsamples = 338\nvalue = [121, 217]"] ;
0 -> 132 [labeldistance=2.5, labelangle=-45, headlabel="False"] ;
133 [label="年龄 <= 2.5\ngini = 0.148\nsamples = 174\nvalue = [14, 160]"] ;
132 -> 133 ;
134 [label="pclass=2nd <= 0.5\ngini = 0.5\nsamples = 2\nvalue = [1, 1]"] ;
133 -> 134 ;
135 [label="gini = 0.0\nsamples = 1\nvalue = [1, 0]"] ;
134 -> 135 ;
136 [label="gini = 0.0\nsamples = 1\nvalue = [0, 1]"] ;
134 -> 136 ;
137 [label="年龄 <= 50.5\ngini = 0.14\nsamples = 172\nvalue = [13, 159]"] ;
133 -> 137 ;
138 [label="年龄 <= 49.5\ngini = 0.154\nsamples = 155\nvalue = [13, 142]"] ;
137 -> 138 ;
139 [label="年龄 <= 44.5\ngini = 0.145\nsamples = 152\nvalue = [12, 140]"] ;
138 -> 139 ;
140 [label="年龄 <= 43.5\ngini = 0.158\nsamples = 139\nvalue = [12, 127]"] ;
139 -> 140 ;
141 [label="年龄 <= 31.597\ngini = 0.149\nsamples = 136\nvalue = [11, 125]"] ;
140 -> 141 ;
142 [label="年龄 <= 24.5\ngini = 0.171\nsamples = 106\nvalue = [10, 96]"] ;
141 -> 142 ;
143 [label="pclass=2nd <= 0.5\ngini = 0.097\nsamples = 39\nvalue = [2, 37]"] ;
142 -> 143 ;
144 [label="gini = 0.0\nsamples = 19\nvalue = [0, 19]"] ;
143 -> 144 ;
145 [label="年龄 <= 17.5\ngini = 0.18\nsamples = 20\nvalue = [2, 18]"] ;
143 -> 145 ;
146 [label="gini = 0.0\nsamples = 8\nvalue = [0, 8]"] ;
145 -> 146 ;
147 [label="年龄 <= 18.5\ngini = 0.278\nsamples = 12\nvalue = [2, 10]"] ;
145 -> 147 ;
148 [label="gini = 0.0\nsamples = 1\nvalue = [1, 0]"] ;
147 -> 148 ;
149 [label="年龄 <= 21.5\ngini = 0.165\nsamples = 11\nvalue = [1, 10]"] ;
147 -> 149 ;
150 [label="gini = 0.0\nsamples = 5\nvalue = [0, 5]"] ;
149 -> 150 ;
151 [label="年龄 <= 22.5\ngini = 0.278\nsamples = 6\nvalue = [1, 5]"] ;
149 -> 151 ;
152 [label="gini = 0.444\nsamples = 3\nvalue = [1, 2]"] ;
151 -> 152 ;
153 [label="gini = 0.0\nsamples = 3\nvalue = [0, 3]"] ;
151 -> 153 ;
154 [label="年龄 <= 25.5\ngini = 0.21\nsamples = 67\nvalue = [8, 59]"] ;
142 -> 154 ;
155 [label="pclass=2nd <= 0.5\ngini = 0.5\nsamples = 2\nvalue = [1, 1]"] ;
154 -> 155 ;
156 [label="gini = 0.0\nsamples = 1\nvalue = [1, 0]"] ;
155 -> 156 ;
157 [label="gini = 0.0\nsamples = 1\nvalue = [0, 1]"] ;
155 -> 157 ;
158 [label="pclass=1st <= 0.5\ngini = 0.192\nsamples = 65\nvalue = [7, 58]"] ;
154 -> 158 ;
159 [label="年龄 <= 27.5\ngini = 0.231\nsamples = 30\nvalue = [4, 26]"] ;
158 -> 159 ;
160 [label="年龄 <= 26.5\ngini = 0.444\nsamples = 3\nvalue = [1, 2]"] ;
159 -> 160 ;
161 [label="gini = 0.0\nsamples = 2\nvalue = [0, 2]"] ;
160 -> 161 ;
162 [label="gini = 0.0\nsamples = 1\nvalue = [1, 0]"] ;
160 -> 162 ;
163 [label="年龄 <= 29.5\ngini = 0.198\nsamples = 27\nvalue = [3, 24]"] ;
159 -> 163 ;
164 [label="gini = 0.0\nsamples = 4\nvalue = [0, 4]"] ;
163 -> 164 ;
165 [label="年龄 <= 30.5\ngini = 0.227\nsamples = 23\nvalue = [3, 20]"] ;
163 -> 165 ;
166 [label="gini = 0.444\nsamples = 3\nvalue = [1, 2]"] ;
165 -> 166 ;
167 [label="年龄 <= 31.097\ngini = 0.18\nsamples = 20\nvalue = [2, 18]"] ;
165 -> 167 ;
168 [label="gini = 0.0\nsamples = 2\nvalue = [0, 2]"] ;
167 -> 168 ;
169 [label="gini = 0.198\nsamples = 18\nvalue = [2, 16]"] ;
167 -> 169 ;
170 [label="年龄 <= 31.097\ngini = 0.157\nsamples = 35\nvalue = [3, 32]"] ;
158 -> 170 ;
171 [label="gini = 0.0\nsamples = 7\nvalue = [0, 7]"] ;
170 -> 171 ;
172 [label="gini = 0.191\nsamples = 28\nvalue = [3, 25]"] ;
170 -> 172 ;
173 [label="pclass=2nd <= 0.5\ngini = 0.064\nsamples = 30\nvalue = [1, 29]"] ;
141 -> 173 ;
174 [label="年龄 <= 36.5\ngini = 0.105\nsamples = 18\nvalue = [1, 17]"] ;
173 -> 174 ;
175 [label="年龄 <= 35.5\ngini = 0.219\nsamples = 8\nvalue = [1, 7]"] ;
174 -> 175 ;
176 [label="gini = 0.0\nsamples = 4\nvalue = [0, 4]"] ;
175 -> 176 ;
177 [label="gini = 0.375\nsamples = 4\nvalue = [1, 3]"] ;
175 -> 177 ;
178 [label="gini = 0.0\nsamples = 10\nvalue = [0, 10]"] ;
174 -> 178 ;
179 [label="gini = 0.0\nsamples = 12\nvalue = [0, 12]"] ;
173 -> 179 ;
180 [label="pclass=2nd <= 0.5\ngini = 0.444\nsamples = 3\nvalue = [1, 2]"] ;
140 -> 180 ;
181 [label="gini = 0.0\nsamples = 2\nvalue = [0, 2]"] ;
180 -> 181 ;
182 [label="gini = 0.0\nsamples = 1\nvalue = [1, 0]"] ;
180 -> 182 ;
183 [label="gini = 0.0\nsamples = 13\nvalue = [0, 13]"] ;
139 -> 183 ;
184 [label="pclass=1st <= 0.5\ngini = 0.444\nsamples = 3\nvalue = [1, 2]"] ;
138 -> 184 ;
185 [label="gini = 0.0\nsamples = 1\nvalue = [0, 1]"] ;
184 -> 185 ;
186 [label="gini = 0.5\nsamples = 2\nvalue = [1, 1]"] ;
184 -> 186 ;
187 [label="gini = 0.0\nsamples = 17\nvalue = [0, 17]"] ;
137 -> 187 ;
188 [label="年龄 <= 5.5\ngini = 0.454\nsamples = 164\nvalue = [107, 57]"] ;
132 -> 188 ;
189 [label="年龄 <= 2.5\ngini = 0.32\nsamples = 5\nvalue = [1, 4]"] ;
188 -> 189 ;
190 [label="年龄 <= 1.083\ngini = 0.5\nsamples = 2\nvalue = [1, 1]"] ;
189 -> 190 ;
191 [label="gini = 0.0\nsamples = 1\nvalue = [0, 1]"] ;
190 -> 191 ;
192 [label="gini = 0.0\nsamples = 1\nvalue = [1, 0]"] ;
190 -> 192 ;
193 [label="gini = 0.0\nsamples = 3\nvalue = [0, 3]"] ;
189 -> 193 ;
194 [label="年龄 <= 13.0\ngini = 0.444\nsamples = 159\nvalue = [106, 53]"] ;
188 -> 194 ;
195 [label="gini = 0.0\nsamples = 6\nvalue = [6, 0]"] ;
194 -> 195 ;
196 [label="年龄 <= 16.5\ngini = 0.453\nsamples = 153\nvalue = [100, 53]"] ;
194 -> 196 ;
197 [label="年龄 <= 15.5\ngini = 0.375\nsamples = 4\nvalue = [1, 3]"] ;
196 -> 197 ;
198 [label="gini = 0.0\nsamples = 1\nvalue = [0, 1]"] ;
197 -> 198 ;
199 [label="gini = 0.444\nsamples = 3\nvalue = [1, 2]"] ;
197 -> 199 ;
200 [label="年龄 <= 32.5\ngini = 0.446\nsamples = 149\nvalue = [99, 50]"] ;
196 -> 200 ;
201 [label="年龄 <= 17.5\ngini = 0.436\nsamples = 140\nvalue = [95, 45]"] ;
200 -> 201 ;
202 [label="gini = 0.0\nsamples = 1\nvalue = [1, 0]"] ;
201 -> 202 ;
203 [label="年龄 <= 30.597\ngini = 0.438\nsamples = 139\nvalue = [94, 45]"] ;
201 -> 203 ;
204 [label="年龄 <= 29.0\ngini = 0.49\nsamples = 14\nvalue = [8, 6]"] ;
203 -> 204 ;
205 [label="年龄 <= 23.5\ngini = 0.444\nsamples = 12\nvalue = [8, 4]"] ;
204 -> 205 ;
206 [label="年龄 <= 22.5\ngini = 0.494\nsamples = 9\nvalue = [5, 4]"] ;
205 -> 206 ;
207 [label="年龄 <= 19.0\ngini = 0.469\nsamples = 8\nvalue = [5, 3]"] ;
206 -> 207 ;
208 [label="gini = 0.5\nsamples = 4\nvalue = [2, 2]"] ;
207 -> 208 ;
209 [label="年龄 <= 21.5\ngini = 0.375\nsamples = 4\nvalue = [3, 1]"] ;
207 -> 209 ;
210 [label="gini = 0.0\nsamples = 2\nvalue = [2, 0]"] ;
209 -> 210 ;
211 [label="gini = 0.5\nsamples = 2\nvalue = [1, 1]"] ;
209 -> 211 ;
212 [label="gini = 0.0\nsamples = 1\nvalue = [0, 1]"] ;
206 -> 212 ;
213 [label="gini = 0.0\nsamples = 3\nvalue = [3, 0]"] ;
205 -> 213 ;
214 [label="gini = 0.0\nsamples = 2\nvalue = [0, 2]"] ;
204 -> 214 ;
215 [label="年龄 <= 31.597\ngini = 0.429\nsamples = 125\nvalue = [86, 39]"] ;
203 -> 215 ;
216 [label="gini = 0.431\nsamples = 124\nvalue = [85, 39]"] ;
215 -> 216 ;
217 [label="gini = 0.0\nsamples = 1\nvalue = [1, 0]"] ;
215 -> 217 ;
218 [label="年龄 <= 38.5\ngini = 0.494\nsamples = 9\nvalue = [4, 5]"] ;
200 -> 218 ;
219 [label="gini = 0.0\nsamples = 5\nvalue = [0, 5]"] ;
218 -> 219 ;
220 [label="gini = 0.0\nsamples = 4\nvalue = [4, 0]"] ;
218 -> 220 ;
}